digraph Tree {
node [shape=box, style="filled, rounded", color="black", fontname=helvetica] ;
edge [fontname=helvetica] ;
0 [label="petal width (cm) <= 0.7\ngini = 0.67\nsamples = 93\nvalue = [50, 52, 48]\nclass = versicolor", fillcolor="#fbfefc"] ;
1 [label="gini = 0.0\nsamples = 32\nvalue = [50, 0, 0]\nclass = setosa", fillcolor="#e58139"] ;
0 -> 1 [labeldistance=2.5, labelangle=45, headlabel="True"] ;
2 [label="petal width (cm) <= 1.65\ngini = 0.5\nsamples = 61\nvalue = [0, 52, 48]\nclass = versicolor", fillcolor="#f0fdf5"] ;
0 -> 2 [labeldistance=2.5, labelangle=-45, headlabel="False"] ;
3 [label="sepal length (cm) <= 7.1\ngini = 0.11\nsamples = 32\nvalue = [0, 50, 3]\nclass = versicolor", fillcolor="#45e789"] ;
2 -> 3 ;
4 [label="petal width (cm) <= 1.35\ngini = 0.07\nsamples = 31\nvalue = [0, 50, 2]\nclass = versicolor", fillcolor="#41e686"] ;
3 -> 4 ;
5 [label="gini = 0.0\nsamples = 18\nvalue = [0, 29, 0]\nclass = versicolor", fillcolor="#39e581"] ;
4 -> 5 ;
6 [label="petal length (cm) <= 5.0\ngini = 0.16\nsamples = 13\nvalue = [0, 21, 2]\nclass = versicolor", fillcolor="#4ce78d"] ;
4 -> 6 ;
7 [label="gini = 0.0\nsamples = 11\nvalue = [0, 21, 0]\nclass = versicolor", fillcolor="#39e581"] ;
6 -> 7 ;
8 [label="gini = 0.0\nsamples = 2\nvalue = [0, 0, 2]\nclass = virginica", fillcolor="#8139e5"] ;
6 -> 8 ;
9 [label="gini = 0.0\nsamples = 1\nvalue = [0, 0, 1]\nclass = virginica", fillcolor="#8139e5"] ;
3 -> 9 ;
10 [label="petal length (cm) <= 5.05\ngini = 0.08\nsamples = 29\nvalue = [0, 2, 45]\nclass = virginica", fillcolor="#8742e6"] ;
2 -> 10 ;
11 [label="sepal length (cm) <= 6.5\ngini = 0.22\nsamples = 9\nvalue = [0, 2, 14]\nclass = virginica", fillcolor="#9355e9"] ;
10 -> 11 ;
12 [label="petal length (cm) <= 4.85\ngini = 0.12\nsamples = 8\nvalue = [0, 1, 14]\nclass = virginica", fillcolor="#8a47e7"] ;
11 -> 12 ;
13 [label="sepal width (cm) <= 3.1\ngini = 0.22\nsamples = 4\nvalue = [0, 1, 7]\nclass = virginica", fillcolor="#9355e9"] ;
12 -> 13 ;
14 [label="gini = 0.0\nsamples = 3\nvalue = [0, 0, 7]\nclass = virginica", fillcolor="#8139e5"] ;
13 -> 14 ;
15 [label="gini = 0.0\nsamples = 1\nvalue = [0, 1, 0]\nclass = versicolor", fillcolor="#39e581"] ;
13 -> 15 ;
16 [label="gini = 0.0\nsamples = 4\nvalue = [0, 0, 7]\nclass = virginica", fillcolor="#8139e5"] ;
12 -> 16 ;
17 [label="gini = 0.0\nsamples = 1\nvalue = [0, 1, 0]\nclass = versicolor", fillcolor="#39e581"] ;
11 -> 17 ;
18 [label="gini = 0.0\nsamples = 20\nvalue = [0, 0, 31]\nclass = virginica", fillcolor="#8139e5"] ;
10 -> 18 ;
}